Language model created by QuickLM on Sun Aug 13 02:35:16 EDT 2023
Copyright (c) 1996-2010 Carnegie Mellon University and Alexander I. Rudnicky

The model is in standard ARPA format, designed by Doug Paul while he was at MITRE.

The code that was used to produce this language model is available in Open Source.
Please visit http://www.speech.cs.cmu.edu/tools/ for more information

The (fixed) discount mass is 0.5. The backoffs are computed using the ratio method.
This model based on a corpus of 12 sentences and 11 words

\data\
ngram 1=11
ngram 2=21
ngram 3=25

\1-grams:
-0.9208 </s> -0.3010
-0.9208 <s> -0.2455
-1.6990 CHROME -0.2455
-1.2218 CLOSE -0.2455
-1.6990 CMD -0.2455
-1.6990 EXCEL -0.2455
-1.6990 NOTEPAD -0.2455
-1.2218 OPEN -0.2455
-1.6990 POINT -0.2455
-1.6990 POWER -0.2923
-1.6990 WORD -0.2455

\2-grams:
-0.6021 <s> CLOSE 0.0000
-0.6021 <s> OPEN 0.0000
-0.3010 CHROME </s> -0.3010
-1.0792 CLOSE CHROME 0.0000
-1.0792 CLOSE CMD 0.0000
-1.0792 CLOSE EXCEL 0.0000
-1.0792 CLOSE NOTEPAD 0.0000
-1.0792 CLOSE POWER 0.0000
-1.0792 CLOSE WORD 0.0000
-0.3010 CMD </s> -0.3010
-0.3010 EXCEL </s> -0.3010
-0.3010 NOTEPAD </s> -0.3010
-1.0792 OPEN CHROME 0.0000
-1.0792 OPEN CMD 0.0000
-1.0792 OPEN EXCEL 0.0000
-1.0792 OPEN NOTEPAD 0.0000
-1.0792 OPEN POWER 0.0000
-1.0792 OPEN WORD 0.0000
-0.3010 POINT </s> -0.3010
-0.3010 POWER POINT 0.0000
-0.3010 WORD </s> -0.3010

\3-grams:
-1.0792 <s> CLOSE CHROME
-1.0792 <s> CLOSE CMD
-1.0792 <s> CLOSE EXCEL
-1.0792 <s> CLOSE NOTEPAD
-1.0792 <s> CLOSE POWER
-1.0792 <s> CLOSE WORD
-1.0792 <s> OPEN CHROME
-1.0792 <s> OPEN CMD
-1.0792 <s> OPEN EXCEL
-1.0792 <s> OPEN NOTEPAD
-1.0792 <s> OPEN POWER
-1.0792 <s> OPEN WORD
-0.3010 CLOSE CHROME </s>
-0.3010 CLOSE CMD </s>
-0.3010 CLOSE EXCEL </s>
-0.3010 CLOSE NOTEPAD </s>
-0.3010 CLOSE POWER POINT
-0.3010 CLOSE WORD </s>
-0.3010 OPEN CHROME </s>
-0.3010 OPEN CMD </s>
-0.3010 OPEN EXCEL </s>
-0.3010 OPEN NOTEPAD </s>
-0.3010 OPEN POWER POINT
-0.3010 OPEN WORD </s>
-0.3010 POWER POINT </s>

\end\
